{"a": [0.53414386510849, -0.3800239562988281, 0.04449678957462311, 0.6403957605361938, 0.5334415435791016, -0.8370877504348755, -0.5015499591827393, 0.5010126829147339, 0.4546298384666443, -0.07060030847787857, -0.35653769969940186, -0.9377629160881042, 0.4303078353404999, -0.3043748438358307, 0.3978913724422455, 0.2598832845687866, 0.6177698373794556, 0.5603106617927551, -0.2524372339248657, -0.13904692232608795, 0.1890200823545456, -0.5622544288635254, 0.6815741062164307, -0.6095640063285828, 0.49457627534866333, -0.6173585057258606, -0.6138287782669067, 0.5279973745346069, -0.24657365679740906, 0.07489658147096634], "b": [0.170646533370018, 0.1040024608373642, -0.6647817492485046, -0.5664584636688232, -0.38271650671958923, 0.47679588198661804, -0.15381374955177307, -0.12628468871116638, -0.2510729432106018, -0.4716202914714813, 0.16536593437194824, -0.5146094560623169, 0.39127281308174133, 0.07903158664703369, -0.1513657420873642, 0.4230116605758667, 0.26836755871772766, 0.24147561192512512, -0.5272274017333984, -0.4177473187446594, 0.6935738325119019, -0.5021840929985046, -0.1767396330833435, 0.6003054976463318, -0.07162728160619736, 0.3766603469848633, 0.22404414415359497, -0.38984256982803345, -0.19495606422424316, -0.14306578040122986], "c": [0.6211150884628296, 0.03975678235292435, -0.7018810510635376, -0.34131649136543274, -0.51207435131073, 0.3676195740699768, 0.21163006126880646, -0.34284815192222595, 0.30556461215019226, 0.11669255048036575, 0.3054180145263672, 0.014589823782444, 1.093956708908081, 0.42727938294410706, -0.9151366353034973, 0.9704563617706299, 0.9275175333023071, -0.5074931979179382, -0.47091323137283325, 0.3376522362232208, -0.23778431117534637, -0.47623589634895325, -0.08339682966470718, 0.4585873484611511, -0.1083378866314888, 0.7038641571998596, 0.4137651026248932, 0.2945823073387146, -0.9443271160125732, -0.27533796429634094], "d": [-0.07705290615558624, -0.20406058430671692, -0.9164621233940125, -0.4491967260837555, -0.637843668460846, 0.6768070459365845, -0.03379856050014496, 0.10664160549640656, 0.7211352586746216, -0.31144365668296814, 0.04248592630028725, -0.30815833806991577, -0.05728033930063248, -0.23809559643268585, -1.049343466758728, 0.35979753732681274, 0.26549002528190613, 0.0988883227109909, -0.6794156432151794, -0.4877385199069977, 0.8365993499755859, 0.2667774558067322, 0.49465373158454895, 0.5744755864143372, -0.23301652073860168, -0.11270159482955933, 0.39380085468292236, 0.08770028501749039, -0.2819339632987976, -0.6007792353630066], "e": [0.17948009073734283, -0.28818660974502563, -0.4306221604347229, 0.12828905880451202, 0.667197048664093, 0.3011713922023773, -0.4720659852027893, 0.3240099549293518, 0.21748106181621552, -0.4900503158569336, -0.41624143719673157, -0.0024931849911808968, 0.19593384861946106, -0.0956912711262703, 0.32979604601860046, 0.5617222189903259, 0.5478864908218384, 0.6680648326873779, -0.2249227911233902, 0.6373355388641357, 0.3254895508289337, 0.11547509580850601, -0.06295525282621384, -0.06383392959833145, 0.22789137065410614, -0.5713681578636169, -0.40013834834098816, 0.5679396390914917, -0.5576300024986267, -0.5694523453712463], "f": [0.047425925731658936, -0.4130735695362091, -0.5031406879425049, 0.023106073960661888, -0.5122339129447937, 0.23944246768951416, -0.1637573540210724, 0.16205482184886932, -0.09412036836147308, -0.36645054817199707, 0.33415487408638, -0.2929801046848297, -0.42222142219543457, -0.2722136080265045, -0.9213271737098694, 1.0073773860931396, 0.10165023803710938, 0.2586781680583954, -0.9753212928771973, -0.15782542526721954, 0.08286862820386887, -0.17996813356876373, -0.37958282232284546, 0.17697341740131378, -0.13730725646018982, 0.4151068925857544, 0.2683325707912445, -0.23022960126399994, 0.1911904215812683, -0.49722230434417725], "g": [-0.222273588180542, -0.8995778560638428, -0.46380728483200073, -0.2500569820404053, -0.6140382289886475, -0.15710650384426117, -0.05385497212409973, -0.016740676015615463, -0.25457483530044556, -0.30017250776290894, 0.28844407200813293, -0.1535908430814743, 0.23025226593017578, -0.07369524985551834, 0.0846966952085495, 0.299637109041214, 0.01605878584086895, 0.0017575824167579412, -0.624888002872467, 0.14132122695446014, 0.20498840510845184, -0.5753496885299683, 0.1254458874464035, 0.7546592354774475, -0.7651174664497375, 0.35075604915618896, -0.554749608039856, 0.49366992712020874, -0.633092999458313, -0.588622510433197], "h": [-0.0780813917517662, -0.6025069952011108, -0.48444870114326477, -0.08406729251146317, -0.4632624387741089, 0.09220138937234879, -0.2887396514415741, -0.04716000333428383, 0.722560465335846, -0.4114794135093689, -0.10915187001228333, -0.27619415521621704, -0.20798178017139435, -0.12610365450382233, -0.08367301523685455, -0.020009294152259827, -0.13104654848575592, -0.2764897346496582, -0.365115225315094, -0.3154681324958801, 0.6346790194511414, 0.15456494688987732, 0.30739596486091614, -0.0641552209854126, -0.2588346600532532, 0.3366488218307495, 0.916045606136322, 0.06967167556285858, -0.3166903853416443, -0.37922459840774536], "i": [0.3955511748790741, -0.14096052944660187, -0.10803324729204178, 0.44225531816482544, 0.871536135673523, -0.2057691514492035, -0.8101428747177124, 1.1408120393753052, 0.56367427110672, -0.4836317300796509, 0.3356059193611145, -0.3335888683795929, 0.5762850642204285, -0.42533305287361145, 0.41065242886543274, 0.29248297214508057, -0.223472461104393, -0.28570976853370667, -0.39748769998550415, 0.87781822681427, 0.10624459385871887, -0.2207433134317398, 0.41283854842185974, 0.12969592213630676, -0.1582840383052826, 0.40947410464286804, -0.06322585046291351, 0.136557474732399, -0.34654077887535095, -0.09739086031913757], "j": [0.25003886222839355, -0.39370930194854736, -0.08374349772930145, -0.17766577005386353, -0.28529685735702515, 0.10311970859766006, -0.09505870193243027, 0.20818419754505157, 0.04862608760595322, 0.1055212914943695, 0.2485678493976593, -0.0852292850613594, -0.15576373040676117, -0.23282630741596222, 0.2891034185886383, 0.4723159074783325, 0.05645317584276199, 0.0753311887383461, 0.20127272605895996, -0.08629649877548218, 0.1835165172815323, 0.04249586537480354, 0.1570511907339096, 0.4669612944126129, -0.20131652057170868, 0.1683604121208191, -0.4259527027606964, -0.1005173772573471, 0.021488243713974953, 0.49535802006721497], "k": [-0.2066558599472046, -0.6524255871772766, -0.18650372326374054, 0.003857681527733803, 0.024142062291502953, -0.13880307972431183, -0.2006196528673172, 0.13565610349178314, 0.2960768938064575, 0.012087885290384293, -0.24687601625919342, -0.15816080570220947, 0.038719117641448975, 0.036350104957818985, 0.18328246474266052, 0.2489185631275177, -0.009459246881306171, -0.16010375320911407, -0.0727357566356659, -0.1729327291250229, 0.24403496086597443, 0.17310914397239685, 0.23272156715393066, 0.22774577140808105, -0.09962897002696991, 0.025287898257374763, 0.4989832639694214, 0.13011634349822998, -0.0908937156200409, -0.18370984494686127], "l": [-0.5242478251457214, -0.4383690059185028, -0.42816680669784546, -0.38637489080429077, -0.028600703924894333, 0.15286052227020264, -0.0016977604245766997, 0.22306795418262482, 0.1850753277540207, -0.8523956537246704, 0.2674126625061035, -0.3365980088710785, 0.6678791642189026, -0.2893546223640442, 0.1902277022600174, 0.8680650591850281, 0.6171472668647766, -0.2934350073337555, -0.4543359577655792, 0.5966298580169678, 0.5094083547592163, -0.0015970936510711908, 0.44712239503860474, -0.47942668199539185, -0.588119626045227, 0.5465985536575317, 0.6388121843338013, -0.8681124448776245, 0.06230558454990387, -0.7111644148826599], "m": [0.17383907735347748, -0.377203106880188, -0.24239733815193176, -0.17449644207954407, 0.010074754245579243, 0.20550833642482758, 0.3442000448703766, 0.5297163128852844, -0.008112762123346329, 0.41928523778915405, 0.5396583676338196, -0.9275918006896973, 0.21848228573799133, -0.7047803997993469, 0.16137458384037018, -0.29976919293403625, 0.5169053673744202, -0.5879814624786377, -0.6592350602149963, -0.5900352597236633, 0.9794644117355347, -0.6252952218055725, 0.6324801445007324, 0.7412773370742798, -0.19619379937648773, 0.45373696088790894, -0.23366381227970123, -0.43845295906066895, 0.25798436999320984, -0.5657440423965454], "n": [0.43308189511299133, -0.46395841240882874, -0.32250672578811646, -0.29872646927833557, -0.155417799949646, 0.6305267810821533, -0.06843215972185135, 0.45168811082839966, 0.9995383620262146, -0.1436610221862793, 0.6357404589653015, -0.014145494438707829, 0.27859804034233093, -0.4138031303882599, -0.10458309948444366, 1.0572779178619385, -0.4231417775154114, 0.005838545970618725, 0.06423213332891464, 0.45827996730804443, 0.8634108304977417, 0.3358830213546753, 0.4793991148471832, -0.32299989461898804, -0.4798299968242645, 0.20228885114192963, 0.6241340637207031, 0.8128978610038757, -0.2687050700187683, -0.8772711753845215], "o": [0.42576172947883606, -0.9256861805915833, -0.6353551149368286, 0.4639286994934082, 0.5625669360160828, -0.38489583134651184, 0.444123238325119, 0.230088010430336, 0.4447571933269501, -0.4353235363960266, -0.6875048279762268, 0.29814398288726807, 0.1905735433101654, -0.26023760437965393, 0.5471736788749695, 0.5253993272781372, 0.08751926571130753, 0.16911247372627258, -0.5592668056488037, 0.4026105999946594, 0.06739594042301178, -0.5429551601409912, 0.20175667107105255, -0.23118607699871063, 0.643683135509491, -0.41492584347724915, -0.5968080759048462, 0.33902356028556824, -0.40825405716896057, -0.10944731533527374], "p": [-0.14195330440998077, -0.29647645354270935, -0.7179725766181946, -0.4987952709197998, -0.08089545369148254, 0.5374629497528076, -0.12275726348161697, 0.42697852849960327, 0.3907717764377594, -0.1191818118095398, 0.34397637844085693, 0.018330635502934456, 0.24268943071365356, -0.37939950823783875, -0.7767477035522461, -0.3158372640609741, 0.8849455714225769, -0.3680739104747772, -0.7850612998008728, 0.1660953313112259, 0.4110831618309021, -0.5097657442092896, -0.1830807626247406, 0.8050040602684021, -0.046037111431360245, 0.16877871751785278, -0.048930585384368896, -0.286722868680954, -0.5320082902908325, -0.4360096752643585], "q": [0.6557860374450684, -0.13628606498241425, -0.36051392555236816, 0.0659327507019043, -0.6869030594825745, 0.424323707818985, 0.27033907175064087, 0.10806815326213837, -0.21353119611740112, 0.31388866901397705, 0.22279329597949982, -0.3111518621444702, 0.05344759672880173, 0.0935472697019577, 0.15599600970745087, 0.5271786451339722, 0.2493809163570404, 0.46214374899864197, 0.3901039659976959, -0.08418767899274826, 0.5476410984992981, 0.3363862633705139, 0.11577097326517105, 0.2504078447818756, -0.09927213937044144, 0.5775574445724487, -0.6604374647140503, -0.06603831797838211, 0.02750350534915924, 0.6921337246894836], "r": [0.4453486204147339, -0.16498525440692902, -0.40357306599617004, -0.08306568115949631, -0.1803622543811798, 0.6258224844932556, -0.40104231238365173, 0.3785618841648102, 0.825922429561615, -0.3592875897884369, 0.23837082087993622, -0.21577145159244537, 0.15528368949890137, -0.054799634963274, 0.16168580949306488, 0.4913521111011505, 0.15390831232070923, 0.01438426598906517, -0.3607858717441559, -0.09239331632852554, 0.6164745092391968, -0.6925035715103149, 0.43201443552970886, 0.07615969330072403, -0.0014956066152080894, 0.15147718787193298, 0.6143463253974915, 0.25262725353240967, -0.3421328365802765, -0.7187985777854919], "s": [0.40043434500694275, -0.573355495929718, -0.28152480721473694, 0.4105338156223297, 0.03504615277051926, 0.5383362174034119, -0.0640711858868599, 0.06644858419895172, 0.4529232084751129, 0.056905459612607956, 0.48282894492149353, -0.9041656255722046, -0.6366295218467712, -0.504231333732605, 0.40239033102989197, 0.6669635772705078, 1.151267170906067, -0.8859555721282959, 0.47418221831321716, 0.256884902715683, 0.1984274685382843, -0.15147919952869415, 0.5282295942306519, -0.4778478145599365, 0.2544390559196472, 0.5167478919029236, 0.6564398407936096, -0.11956774443387985, -0.07408465445041656, -0.4809396266937256], "t": [-0.2686483860015869, -0.6735319495201111, 0.008815014734864235, -0.27307623624801636, -0.37178415060043335, 0.5831009149551392, -0.8926371932029724, 0.46315667033195496, 0.953825831413269, -0.9195303916931152, 0.5831572413444519, -0.32813072204589844, -0.28698161244392395, -0.7594007849693298, -0.08325768262147903, 0.5344032645225525, 0.8457252383232117, -0.4926024079322815, -0.28265124559402466, -0.3033442497253418, -0.09507695585489273, -0.6901576519012451, 0.21731601655483246, 0.3877542018890381, -0.33604875206947327, 0.14679688215255737, 0.15575724840164185, 0.14213836193084717, -0.9053630232810974, 0.5803844928741455], "u": [0.3973850905895233, -0.02845369093120098, -0.8028721213340759, 0.24150049686431885, 0.606488823890686, 0.02866429090499878, -0.4848599433898926, -0.27363812923431396, 0.35535937547683716, -0.506405234336853, -0.16804900765419006, -0.05489116162061691, -0.02338241972029209, 0.19990378618240356, 0.05752822756767273, -0.15389901399612427, 0.05072251707315445, 0.10796985775232315, -0.271145224571228, 0.496906042098999, 0.9695582389831543, -0.6564816236495972, -0.3991568088531494, 0.10155364125967026, 0.043681759387254715, 0.7828263640403748, 0.10171466320753098, 0.6381866335868835, -0.27455973625183105, -0.42639997601509094], "v": [-0.3406357169151306, -0.23844023048877716, -0.7036172151565552, -0.33336058259010315, -0.40406906604766846, 0.33618780970573425, -0.21905876696109772, 0.14591915905475616, 0.5952209234237671, -0.37462949752807617, 0.22500871121883392, 0.1381397545337677, 0.2441147267818451, -0.13618618249893188, -0.7574211359024048, 0.20653031766414642, 0.023936152458190918, -0.4234360158443451, -0.3810928463935852, -0.14336633682250977, 0.4475434124469757, -0.40734055638313293, 0.3651721179485321, 0.30094096064567566, -0.44675278663635254, 0.3246995508670807, 0.42645466327667236, 0.21781423687934875, 0.15691214799880981, -0.29620349407196045], "w": [-0.4500962197780609, -0.461101233959198, 0.20081566274166107, 0.3099237084388733, -0.6284489035606384, 0.46119335293769836, -0.5695893168449402, 0.7223653197288513, -0.5385850071907043, 0.6372300982475281, -0.6245881915092468, -0.4369986653327942, 0.7131606936454773, -0.39421799778938293, -0.7872327566146851, -0.4835902452468872, 0.37562867999076843, 0.06983054429292679, 0.5069591999053955, -0.08075959235429764, 0.726916491985321, -0.5319931507110596, -0.47149211168289185, -0.4248303174972534, 0.5326033234596252, -0.10111191868782043, 0.5201728940010071, 0.6167023777961731, 0.8648867011070251, 0.24499817192554474], "x": [0.3811992108821869, -0.4872414469718933, -0.16414137184619904, 0.03180162236094475, 0.1405959576368332, 0.12803742289543152, 0.08964058011770248, -0.22417812049388885, 0.3494977653026581, -0.09041352570056915, -0.42178767919540405, 0.06475692987442017, -0.05858069285750389, -0.09367185831069946, 0.4906461834907532, 0.27656835317611694, 0.2083253264427185, 0.15688727796077728, -0.04894483461976051, 0.04328364133834839, 0.5259394645690918, 0.3897377550601959, -0.13289298117160797, -0.1200689896941185, -0.06155170127749443, 0.017140833660960197, 0.677046000957489, -0.26251575350761414, -0.16197635233402252, -0.020470378920435905], "y": [0.18437927961349487, -0.22108493745326996, -0.32615867257118225, 0.08446907252073288, 0.1190524697303772, -0.02998143434524536, 0.20044411718845367, 0.15100684762001038, 0.27146628499031067, 0.09982088953256607, -0.235445037484169, 0.22922421991825104, 0.28886064887046814, -0.18133577704429626, 0.14444498717784882, 0.2908209264278412, 0.06997320801019669, 0.19589217007160187, -0.22657763957977295, -0.03179280087351799, 0.6197001934051514, 0.24091380834579468, 0.0761466771364212, 0.29091325402259827, 0.027455000206828117, 0.04758898541331291, 0.42154452204704285, -0.1396259069442749, -0.007810772862285376, -0.2778702974319458], "z": [-0.459031879901886, 0.4035058319568634, -0.4642890989780426, -0.31532275676727295, -0.19224123656749725, 0.3913595378398895, 0.1229168251156807, -0.27751755714416504, 0.5701760053634644, 0.30156591534614563, 0.834976315498352, -0.26234400272369385, 0.17716874182224274, -0.9278766512870789, -0.26555347442626953, 0.36887791752815247, -0.09294143319129944, -0.2238229215145111, -0.5609043836593628, -0.2660306692123413, 0.6884340047836304, -0.17949335277080536, -0.394659161567688, -0.5018925070762634, -0.7781991362571716, -0.22921283543109894, 0.29753702878952026, 0.30647650361061096, -0.4959588348865509, -0.23838938772678375], "0": [-0.8292616009712219, 0.5306825637817383, 0.856238842010498, -1.057085633277893, 0.6691294312477112, -0.7806496620178223, 0.06241094321012497, -0.18688960373401642, -0.32959505915641785, 0.004631970077753067, 0.9749889969825745, 0.8701275587081909, -1.178817629814148, -0.7143509984016418, 0.31100594997406006, -0.004913066979497671, -0.23427267372608185, 0.4454200863838196, 0.37980687618255615, -0.9743962287902832, 0.07662893831729889, 0.2463081330060959, 0.651675283908844, -0.25270041823387146, 0.5508896112442017, 0.48736122250556946, 0.31516364216804504, 0.14249032735824585, -0.11285459995269775, 0.023358989506959915], "1": [-0.5685940980911255, 0.16748148202896118, 0.7568351030349731, -1.112860918045044, -0.39356502890586853, -0.10880762338638306, -0.4695284366607666, 0.29617443680763245, -0.6084470748901367, -0.42603757977485657, 0.5302826166152954, 0.4222634732723236, -0.2820388078689575, 0.2802107334136963, 0.672816812992096, -0.4908301532268524, -0.6612869501113892, 0.37061354517936707, 0.628155529499054, -0.3936755657196045, -0.6168999075889587, 0.3946976959705353, 0.46311715245246887, 0.7644423842430115, 0.5506410002708435, 0.536683201789856, 0.2040134221315384, 0.46503299474716187, -0.5798896551132202, 0.47711825370788574], "2": [-0.09872051328420639, -0.28166842460632324, 1.179465413093567, -1.0859277248382568, 0.025243835523724556, 0.14504273235797882, 0.08850274235010147, -0.2596505284309387, -0.3516337275505066, -0.8934684991836548, -0.10560331493616104, 0.46280530095100403, -0.9327930808067322, 0.23489004373550415, -0.13974016904830933, -0.37886932492256165, -0.38742804527282715, -0.15490393340587616, 0.8249604105949402, 0.1789422184228897, -0.7645666003227234, -0.00280974549241364, 0.5899282693862915, 0.43063080310821533, 0.3843916654586792, 0.34356093406677246, -0.5537413358688354, 0.09667225927114487, -0.15055888891220093, -0.02946927770972252], "3": [-0.13375020027160645, -0.23691920936107635, 0.8264715075492859, -0.8307773470878601, 0.47486215829849243, -0.03114219382405281, -0.5722659230232239, -0.2293834388256073, -0.2784426212310791, -0.13450126349925995, 0.04226141422986984, -0.00036181314499117434, -0.8031899333000183, -0.2984088063240051, 0.2760982811450958, 0.3363947570323944, -0.28721216320991516, -0.7751615047454834, 0.3394217789173126, -0.013529611751437187, -0.5501869916915894, -0.4272555410861969, 0.8963271975517273, 0.30628183484077454, -0.34041401743888855, -0.15978394448757172, -0.596245288848877, 0.20663373172283173, 0.19623704254627228, 0.019595924764871597], "4": [-0.5085639953613281, -0.5624045729637146, 0.46922439336776733, -0.6999922394752502, 0.5698314309120178, -0.29784727096557617, -0.41650059819221497, 0.7381730079650879, 0.2182798534631729, -0.24212384223937988, 0.18106518685817719, -0.42302194237709045, -0.8247779607772827, -0.034181080758571625, 0.5325400829315186, 0.6580057144165039, 0.18484240770339966, -0.7632284760475159, 0.3762094974517822, -0.393257737159729, -0.6537197232246399, -0.3575884997844696, 0.2337064892053604, 0.6991305947303772, -0.3501385450363159, -0.45392268896102905, -0.47769808769226074, 0.6524001359939575, -0.021106086671352386, 0.6217142343521118], "5": [-0.40389880537986755, -0.28684407472610474, 0.2691684663295746, -0.6363937258720398, 0.6543381214141846, -0.2676633894443512, -0.22769339382648468, 0.4330825209617615, 0.13735143840312958, -0.059119813144207, 0.1408015787601471, -0.30169403553009033, -0.703498125076294, -0.03131368011236191, 0.4312576353549957, 0.4888496994972229, 0.049503348767757416, -0.3940349817276001, 0.2368684709072113, -0.3037078380584717, -0.2728278934955597, -0.1598326861858368, 0.12103496491909027, 0.41472506523132324, -0.4315842092037201, -0.26110851764678955, -0.4349301755428314, 0.542208731174469, 0.07510371506214142, 0.32486802339553833], "6": [-0.3962227404117584, -0.42383891344070435, 0.36933019757270813, -0.6078270077705383, 0.5997850298881531, -0.253815621137619, -0.28152021765708923, 0.3591861128807068, 0.07227151840925217, 0.03293055295944214, 0.2405131757259369, -0.10980820655822754, -0.7031827569007874, -0.12113634496927261, 0.4575331509113312, 0.642491340637207, 0.2232789397239685, -0.3456195592880249, 0.342115193605423, -0.2816045880317688, -0.29419416189193726, -0.17707303166389465, 0.024690916761755943, 0.42221906781196594, -0.5245243310928345, -0.17857995629310608, -0.4985385239124298, 0.5775661468505859, 0.003756961552426219, 0.43957406282424927], "7": [-0.2667856514453888, -0.20384648442268372, 0.25338512659072876, -0.5134421586990356, 0.5108358263969421, -0.40387168526649475, -0.3109433650970459, 0.2467881590127945, 0.1146535724401474, -0.20650294423103333, 0.14951279759407043, -0.3094124495983124, -0.6668230295181274, -0.11929673701524734, 0.4585816562175751, 0.37187787890434265, 0.1524682343006134, -0.604936420917511, 0.36121007800102234, -0.20151697099208832, -0.3711141347885132, -0.11443077027797699, 0.2752232849597931, 0.4794502854347229, -0.5528842210769653, -0.22443392872810364, -0.5376096367835999, 0.6427378058433533, -0.1450309306383133, 0.41644051671028137], "8": [-0.4922788739204407, -0.5557969808578491, 0.44311201572418213, -0.7644367218017578, 0.4832947254180908, -0.3359275460243225, -0.38162848353385925, 0.5235339403152466, 0.2674037516117096, -0.22859245538711548, 0.0556558333337307, -0.3108583986759186, -0.8121087551116943, -0.23833590745925903, 0.6745111346244812, 0.4834444224834442, 0.06665563583374023, -0.7959877848625183, 0.5023238658905029, -0.6086825728416443, -0.5328943729400635, -0.3759499490261078, 0.4544503390789032, 0.6896678805351257, -0.6217580437660217, -0.4825228750705719, -0.6246696710586548, 0.5512134432792664, -0.030305612832307816, 0.47824689745903015], "9": [-0.4136147201061249, -0.4117553234100342, 0.2461336851119995, -0.41514691710472107, 0.3813088834285736, -0.2502310574054718, -0.3565618097782135, 0.38094961643218994, 0.3116038143634796, 0.021236419677734375, 0.09506109356880188, -0.2417435497045517, -0.5688180327415466, -0.036860305815935135, 0.3693564534187317, 0.29896122217178345, 0.010984398424625397, -0.5628799796104431, 0.4563940465450287, -0.30336928367614746, -0.2980416715145111, -0.3090057969093323, 0.07797417044639587, 0.5255799889564514, -0.3721778392791748, -0.32183244824409485, -0.37338247895240784, 0.5524230003356934, -0.13356228172779083, 0.35240378975868225], "%": [0.08012419939041138, 0.021647699177265167, -0.029049569740891457, -0.043046146631240845, 0.010638982988893986, 0.06518898159265518, -0.0797366127371788, -0.03989939019083977, -0.01235413271933794, -0.012442046776413918, -0.021386463195085526, 0.05318082869052887, -0.0031256484799087048, 0.045854296535253525, 0.03453730791807175, -0.057460833340883255, -0.07076962292194366, -0.0343346893787384, 0.01001289114356041, -0.0019649341702461243, 0.017550552263855934, 0.016240349039435387, 0.04306500777602196, -0.06273234635591507, 0.014216405339539051, 0.025654831901192665, -0.022280046716332436, -0.012705910950899124, 0.0390641950070858, -0.041509371250867844], "/": [0.7400702238082886, 0.35150641202926636, -0.7067135572433472, -0.7170098423957825, -0.5104074478149414, 0.8381694555282593, -0.8432417511940002, -0.3633568286895752, 0.24940279126167297, 0.10654672980308533, -0.2602523863315582, 0.2886849343776703, -0.3354039788246155, 0.4518807530403137, 0.5103033781051636, -0.2575113773345947, -0.46211498975753784, -0.638275682926178, -0.5430943965911865, 0.16003265976905823, -0.012305916287004948, -0.6368387341499329, 0.4473036229610443, -0.9099435806274414, 0.6057474613189697, 0.9142082333564758, -0.5983265042304993, -0.3769669830799103, 0.46041932702064514, -0.8395630121231079], ":": [0.017075899988412857, 0.019430194050073624, 0.02844865247607231, 0.03574199602007866, 0.03665020689368248, 0.00950251892209053, -0.014208424836397171, -0.012213360518217087, -0.03298696130514145, -0.035147525370121, -0.02818681113421917, -0.036626268178224564, 0.035922374576330185, 0.008088361471891403, 0.03670206293463707, -0.030587507411837578, 0.040173742920160294, -0.044505536556243896, -0.021349716931581497, -0.023736655712127686, 0.03610583767294884, -0.02677929401397705, 0.03799671307206154, 0.04280659928917885, -0.031406477093696594, -0.038122642785310745, -0.0394340381026268, -0.010700501501560211, 0.010454393923282623, 0.03598194196820259], ".": [-1.046258568763733, -1.0064291954040527, -0.5742831826210022, -0.8967080116271973, -0.024828555062413216, -0.3178374767303467, 0.22430384159088135, -1.5899271965026855, -0.5619317889213562, 0.28919777274131775, -0.2866383492946625, -0.6468722224235535, 0.6168575286865234, 0.1529906839132309, 0.6173451542854309, -0.002985456259921193, 1.7031620740890503, 0.25623178482055664, -0.7651623487472534, -0.2059507966041565, 0.7486123442649841, -0.6324890851974487, 0.6173755526542664, -0.8128529191017151, -1.0817115306854248, 0.9342709183692932, -0.5758384466171265, 0.8125486373901367, -0.4161454141139984, -0.9399128556251526], "_": [1.0424764156341553, 0.9280936121940613, 0.4702339470386505, 1.157975196838379, 0.9846543073654175, -0.04649161174893379, -1.3313565254211426, 0.9668027758598328, 0.9720291495323181, 1.0574527978897095, 0.7709879279136658, -0.4257644712924957, 0.5284939408302307, 1.129871129989624, 1.3365564346313477, -0.3881400525569916, -0.3996814489364624, -0.2614162862300873, -0.8395395278930664, -0.6002995371818542, -0.045885778963565826, -0.8963494300842285, 1.2524510622024536, -0.31857359409332275, 0.9399719834327698, -0.36874648928642273, -1.0878506898880005, -0.2684563100337982, 0.6601574420928955, 0.6141068339347839], "-": [0.2499648630619049, -0.3083989918231964, -0.8075383305549622, -0.5015406608581543, 0.16580070555210114, 0.4469226002693176, -0.2028956413269043, 0.11754278838634491, 0.6103376150131226, 0.6871033310890198, 0.26889151334762573, -0.679031491279602, -0.34289345145225525, 0.9722739458084106, 0.29978466033935547, 0.31855344772338867, 0.371748685836792, 0.2002396285533905, -0.5137543082237244, 0.6512787342071533, 0.6123610138893127, -0.5217559337615967, -0.3909335136413574, -0.35625728964805603, -0.054033100605010986, 0.8558772206306458, -0.39539578557014465, 0.250667929649353, 0.4430128037929535, 0.05751477926969528], "(": [0.00993877649307251, -0.014229454100131989, 0.02224314585328102, 0.029048655182123184, -0.015287626534700394, -0.048602666705846786, -0.007576584815979004, 0.012825477868318558, 0.023103836923837662, 0.015589442104101181, 0.02428772673010826, 0.00396125391125679, 0.004448749125003815, -0.04480048641562462, 0.005238153040409088, -0.01749284192919731, 0.049927081912755966, 0.0427703894674778, -0.034107886254787445, -0.031778205186128616, -0.02482517994940281, -0.007226407527923584, 0.04165301099419594, -0.03724738210439682, 0.04455926641821861, 0.04683113470673561, 0.004844594746828079, 0.04669356718659401, 0.019087325781583786, 0.022379938513040543], ")": [0.037543926388025284, 0.007233239710330963, 0.02765115723013878, -0.02789306640625, 0.0015280134975910187, 0.006394386291503906, 0.03207259252667427, -0.03473452478647232, 0.04488924518227577, 0.005081534385681152, -0.028522705659270287, -0.023421932011842728, 0.01298457756638527, -0.03473975509405136, 0.0018612630665302277, 0.009819447994232178, 0.041534390300512314, -0.04458531364798546, -0.020183134824037552, -0.020069802179932594, 0.009509194642305374, 0.004604030400514603, 0.030451778322458267, 0.011199545115232468, -0.007853768765926361, 0.0175861157476902, -0.005365658551454544, -0.04819463565945625, 0.006998121738433838, 0.03428633138537407], "=": [-0.10325053334236145, 0.12691588699817657, 0.05523279681801796, -0.18464089930057526, 0.0493338480591774, -0.023866156116127968, -0.034184399992227554, -0.18322637677192688, -0.17736132442951202, 0.09803002327680588, 0.04849516600370407, 0.19991907477378845, -0.18379776179790497, -0.021061742678284645, 0.022329745814204216, -0.1504625827074051, -0.12058065831661224, 0.023714618757367134, 0.14481987059116364, -0.19193656742572784, -0.10698223859071732, 0.1699974536895752, 0.1450730413198471, -0.12615790963172913, 0.1834433674812317, 0.18591178953647614, 0.049032263457775116, -0.11408830434083939, 0.12040701508522034, -0.04862372577190399], ";": [-0.012253858149051666, -0.023474669083952904, -0.011041749268770218, 0.001874685287475586, -0.03480377048254013, 0.002446163445711136, 0.009068109095096588, -0.02009599283337593, 0.014788951724767685, -0.009642384946346283, -0.02872701920568943, -0.04307854175567627, 0.04982173815369606, -0.03178741782903671, -0.04719512537121773, 0.03886275365948677, -0.011890746653079987, -0.03629840537905693, 0.041240524500608444, -0.02939598634839058, 0.0021535269916057587, -0.02705170027911663, -0.046120788902044296, 0.011126983910799026, -0.011955607682466507, -0.04000039026141167, 0.04785971716046333, 0.04933292046189308, 0.04045242443680763, -0.013709712773561478], "?": [0.36696621775627136, -0.4463951289653778, -0.11152537167072296, -0.24453690648078918, -0.08472689986228943, 0.2412971556186676, 0.4211224913597107, 0.4470463991165161, -0.3630034625530243, 0.2592671513557434, 0.21009942889213562, -0.5047854781150818, -0.07173087447881699, -0.38089847564697266, -0.06756137311458588, 0.11453786492347717, 0.4920060336589813, 0.07153239101171494, 0.05492722988128662, -0.40084511041641235, 0.45965510606765747, 0.1222633421421051, 0.38356348872184753, 0.36806997656822205, -0.025261877104640007, 0.4410206973552704, -0.49733686447143555, -0.43568292260169983, -0.10509949177503586, 0.1594545543193817], "&": [-0.03615053743124008, 0.025395061820745468, 0.03234311565756798, -0.03394363075494766, 0.0427800752222538, -0.021103287115693092, 0.03145238384604454, 0.005615629255771637, 0.04245685413479805, 0.014165911823511124, 0.03617599979043007, 0.015717115253210068, -0.023762797936797142, 0.017013441771268845, 0.006179772317409515, 0.042009387165308, -0.04528627544641495, 0.04822443798184395, 0.03973184898495674, -0.006060563027858734, -0.04297604784369469, -0.014745034277439117, 0.014391962438821793, 0.04430410638451576, 0.02280794456601143, 0.012535762041807175, 0.0300539992749691, 0.022384915500879288, -0.030339587479829788, -0.018741440027952194], "*": [-0.03924550861120224, 0.01472567394375801, -0.033535171300172806, -0.03811144828796387, -0.003607679158449173, -0.04411332681775093, 0.012476585805416107, -0.012850619852542877, 0.0260106660425663, -0.04155008867383003, 0.028257418423891068, 0.04299812391400337, -0.03072516992688179, 0.009852968156337738, -0.024112606421113014, 0.007470585405826569, -0.028003061190247536, -0.04847520589828491, 0.012145377695560455, -0.03525654226541519, -0.006950855255126953, 0.005883179605007172, -0.0107911117374897, 0.038365330547094345, 0.012362755835056305, -0.035524941980838776, -0.0044066421687603, -0.03261244297027588, -0.01932593621313572, -0.046215593814849854], ",": [0.007422219961881638, -0.03884465619921684, 0.014396917074918747, -0.036193717271089554, -0.022141432389616966, -0.026475323364138603, 0.044389497488737106, -0.021052587777376175, 0.03744817152619362, 0.044638168066740036, -0.002927817404270172, -0.012263476848602295, -0.02854297123849392, 0.04006281867623329, 0.04339449480175972, 0.006501235067844391, 0.03810771927237511, -0.034842588007450104, -0.026364076882600784, -0.009910441935062408, -0.037942804396152496, 0.049289654940366745, -0.0051475875079631805, -0.02714710310101509, -0.04517468437552452, 0.0097738616168499, -0.0038257017731666565, 0.028452005237340927, -0.045901861041784286, -0.029925120994448662], " ": [1.1382780075073242, 0.3977840542793274, 1.3970820903778076, 0.4898366630077362, -1.654669165611267, -1.0253715515136719, 1.081148386001587, 1.5429013967514038, -1.5031152963638306, -1.5296761989593506, 1.5148980617523193, 0.4558951258659363, -1.4388618469238281, 0.1626366823911667, -0.12870590388774872, 1.660731315612793, -1.0077629089355469, -1.1380449533462524, -1.620846152305603, 1.2539727687835693, -0.2989571690559387, 0.4275921583175659, -0.8879663348197937, 0.844927966594696, -0.6934714317321777, -0.9137091636657715, 1.2723710536956787, -1.2087788581848145, 1.096408724784851, -1.5726206302642822]}